digraph Tree {
node [shape=box] ;
0 [label="month <= -0.824\ngini = 0.443\nsamples = 6086\nvalue = [6503, 3219]"] ;
1 [label="windspeed <= 2.484\ngini = 0.117\nsamples = 1887\nvalue = [2818, 187]"] ;
0 -> 1 [labeldistance=2.5, labelangle=45, headlabel="True"] ;
2 [label="tavg <= -0.349\ngini = 0.066\nsamples = 1768\nvalue = [2715, 96]"] ;
1 -> 2 ;
3 [label="tmax <= -0.231\ngini = 0.005\nsamples = 717\nvalue = [1125, 3]"] ;
2 -> 3 ;
4 [label="gini = 0.0\nsamples = 576\nvalue = [907, 0]"] ;
3 -> 4 ;
5 [label="delta <= -1.184\ngini = 0.027\nsamples = 141\nvalue = [218, 3]"] ;
3 -> 5 ;
6 [label="(...)"] ;
5 -> 6 ;
19 [label="(...)"] ;
5 -> 19 ;
20 [label="mosquito_cnt <= 0.085\ngini = 0.104\nsamples = 1051\nvalue = [1590, 93]"] ;
2 -> 20 ;
21 [label="windspeed <= 1.214\ngini = 0.015\nsamples = 825\nvalue = [1310, 10]"] ;
20 -> 21 ;
22 [label="(...)"] ;
21 -> 22 ;
37 [label="(...)"] ;
21 -> 37 ;
48 [label="tmin <= -0.5\ngini = 0.353\nsamples = 226\nvalue = [280, 83]"] ;
20 -> 48 ;
49 [label="(...)"] ;
48 -> 49 ;
86 [label="(...)"] ;
48 -> 86 ;
123 [label="species_culex_pipiens_restuans <= -0.928\ngini = 0.498\nsamples = 119\nvalue = [103, 91]"] ;
1 -> 123 ;
124 [label="species_culex_restuans <= 0.672\ngini = 0.305\nsamples = 39\nvalue = [52, 12]"] ;
123 -> 124 ;
125 [label="gini = 0.0\nsamples = 1\nvalue = [1, 0]"] ;
124 -> 125 ;
126 [label="spray_targeted <= 0.603\ngini = 0.308\nsamples = 38\nvalue = [51, 12]"] ;
124 -> 126 ;
127 [label="(...)"] ;
126 -> 127 ;
136 [label="(...)"] ;
126 -> 136 ;
137 [label="species_culex_restuans <= -0.503\ngini = 0.477\nsamples = 80\nvalue = [51, 79]"] ;
123 -> 137 ;
138 [label="latitude <= -0.22\ngini = 0.491\nsamples = 54\nvalue = [51, 39]"] ;
137 -> 138 ;
139 [label="(...)"] ;
138 -> 139 ;
140 [label="(...)"] ;
138 -> 140 ;
163 [label="gini = 0.0\nsamples = 26\nvalue = [0, 40]"] ;
137 -> 163 ;
164 [label="cool <= -0.461\ngini = 0.495\nsamples = 4199\nvalue = [3685, 3032]"] ;
0 -> 164 [labeldistance=2.5, labelangle=-45, headlabel="False"] ;
165 [label="mosquito_cnt <= -0.389\ngini = 0.393\nsamples = 1261\nvalue = [1454, 533]"] ;
164 -> 165 ;
166 [label="wetbulb <= -0.147\ngini = 0.161\nsamples = 789\nvalue = [1146, 111]"] ;
165 -> 166 ;
167 [label="species_culex_restuans <= -0.448\ngini = 0.136\nsamples = 743\nvalue = [1102, 87]"] ;
166 -> 167 ;
168 [label="(...)"] ;
167 -> 168 ;
245 [label="(...)"] ;
167 -> 245 ;
276 [label="dewpt <= 0.074\ngini = 0.457\nsamples = 46\nvalue = [44, 24]"] ;
166 -> 276 ;
277 [label="(...)"] ;
276 -> 277 ;
278 [label="(...)"] ;
276 -> 278 ;
287 [label="sunrise <= 1.305\ngini = 0.488\nsamples = 472\nvalue = [308, 422]"] ;
165 -> 287 ;
288 [label="avgspeed <= 0.163\ngini = 0.421\nsamples = 337\nvalue = [157, 365]"] ;
287 -> 288 ;
289 [label="(...)"] ;
288 -> 289 ;
372 [label="(...)"] ;
288 -> 372 ;
423 [label="windspeed <= -0.676\ngini = 0.398\nsamples = 135\nvalue = [151, 57]"] ;
287 -> 423 ;
424 [label="(...)"] ;
423 -> 424 ;
449 [label="(...)"] ;
423 -> 449 ;
470 [label="species_culex_restuans <= 1.887\ngini = 0.498\nsamples = 2938\nvalue = [2231, 2499]"] ;
164 -> 470 ;
471 [label="longitude <= -0.654\ngini = 0.491\nsamples = 2679\nvalue = [1875, 2445]"] ;
470 -> 471 ;
472 [label="delta <= 1.268\ngini = 0.39\nsamples = 715\nvalue = [310, 860]"] ;
471 -> 472 ;
473 [label="(...)"] ;
472 -> 473 ;
746 [label="(...)"] ;
472 -> 746 ;
765 [label="mosquito_cnt <= -0.248\ngini = 0.5\nsamples = 1964\nvalue = [1565, 1585]"] ;
471 -> 765 ;
766 [label="(...)"] ;
765 -> 766 ;
1129 [label="(...)"] ;
765 -> 1129 ;
1524 [label="month <= 0.102\ngini = 0.229\nsamples = 259\nvalue = [356, 54]"] ;
470 -> 1524 ;
1525 [label="gini = 0.0\nsamples = 5\nvalue = [0, 7]"] ;
1524 -> 1525 ;
1526 [label="tmax <= -0.001\ngini = 0.206\nsamples = 254\nvalue = [356, 47]"] ;
1524 -> 1526 ;
1527 [label="(...)"] ;
1526 -> 1527 ;
1580 [label="(...)"] ;
1526 -> 1580 ;
}