digraph Tree {
node [shape=box] ;
0 [label="month <= -0.633\ngini = 0.5\nsamples = 8155\nvalue = [6492, 6336]"] ;
1 [label="msqto_log <= 1.02\ngini = 0.211\nsamples = 2047\nvalue = [2805, 381]"] ;
0 -> 1 [labeldistance=2.5, labelangle=45, headlabel="True"] ;
2 [label="msqto_log <= 0.364\ngini = 0.067\nsamples = 1548\nvalue = [2333, 84]"] ;
1 -> 2 ;
3 [label="sunset_log <= -0.547\ngini = 0.017\nsamples = 1252\nvalue = [1945, 17]"] ;
2 -> 3 ;
4 [label="gini = 0.0\nsamples = 691\nvalue = [1099, 0]"] ;
3 -> 4 ;
5 [label="sealvlpressure <= 0.704\ngini = 0.039\nsamples = 561\nvalue = [846, 17]"] ;
3 -> 5 ;
6 [label="(...)"] ;
5 -> 6 ;
25 [label="(...)"] ;
5 -> 25 ;
28 [label="windspeed <= -0.581\ngini = 0.251\nsamples = 296\nvalue = [388, 67]"] ;
2 -> 28 ;
29 [label="sunset_log <= -0.002\ngini = 0.496\nsamples = 58\nvalue = [55, 46]"] ;
28 -> 29 ;
30 [label="(...)"] ;
29 -> 30 ;
45 [label="(...)"] ;
29 -> 45 ;
62 [label="delta <= 0.929\ngini = 0.112\nsamples = 238\nvalue = [333, 21]"] ;
28 -> 62 ;
63 [label="(...)"] ;
62 -> 63 ;
70 [label="(...)"] ;
62 -> 70 ;
85 [label="sunrise <= -0.956\ngini = 0.474\nsamples = 499\nvalue = [472, 297]"] ;
1 -> 85 ;
86 [label="gini = 0.0\nsamples = 141\nvalue = [203, 0]"] ;
85 -> 86 ;
87 [label="cool <= -0.51\ngini = 0.499\nsamples = 358\nvalue = [269, 297]"] ;
85 -> 87 ;
88 [label="winddirection <= 0.5\ngini = 0.108\nsamples = 52\nvalue = [82, 5]"] ;
87 -> 88 ;
89 [label="(...)"] ;
88 -> 89 ;
92 [label="(...)"] ;
88 -> 92 ;
93 [label="tavg <= 1.393\ngini = 0.476\nsamples = 306\nvalue = [187, 292]"] ;
87 -> 93 ;
94 [label="(...)"] ;
93 -> 94 ;
207 [label="(...)"] ;
93 -> 207 ;
250 [label="sunset_log <= 0.888\ngini = 0.472\nsamples = 6108\nvalue = [3687, 5955]"] ;
0 -> 250 [labeldistance=2.5, labelangle=-45, headlabel="False"] ;
251 [label="cool <= 1.433\ngini = 0.431\nsamples = 5164\nvalue = [2569, 5614]"] ;
250 -> 251 ;
252 [label="msqto_log <= -0.077\ngini = 0.408\nsamples = 4666\nvalue = [2111, 5271]"] ;
251 -> 252 ;
253 [label="sealvlpressure <= 0.921\ngini = 0.399\nsamples = 1020\nvalue = [1173, 446]"] ;
252 -> 253 ;
254 [label="(...)"] ;
253 -> 254 ;
507 [label="(...)"] ;
253 -> 507 ;
568 [label="delta <= -0.655\ngini = 0.273\nsamples = 3646\nvalue = [938, 4825]"] ;
252 -> 568 ;
569 [label="(...)"] ;
568 -> 569 ;
742 [label="(...)"] ;
568 -> 742 ;
1565 [label="delta <= 2.06\ngini = 0.49\nsamples = 498\nvalue = [458, 343]"] ;
251 -> 1565 ;
1566 [label="msqto_log <= 0.569\ngini = 0.494\nsamples = 481\nvalue = [426, 341]"] ;
1565 -> 1566 ;
1567 [label="(...)"] ;
1566 -> 1567 ;
1638 [label="(...)"] ;
1566 -> 1638 ;
1725 [label="longitude <= -0.035\ngini = 0.111\nsamples = 17\nvalue = [32, 2]"] ;
1565 -> 1725 ;
1726 [label="(...)"] ;
1725 -> 1726 ;
1731 [label="(...)"] ;
1725 -> 1731 ;
1732 [label="sunrise <= 1.605\ngini = 0.358\nsamples = 944\nvalue = [1118, 341]"] ;
250 -> 1732 ;
1733 [label="msqto_log <= 0.369\ngini = 0.445\nsamples = 547\nvalue = [574, 288]"] ;
1732 -> 1733 ;
1734 [label="precip_log <= -0.447\ngini = 0.176\nsamples = 313\nvalue = [444, 48]"] ;
1733 -> 1734 ;
1735 [label="(...)"] ;
1734 -> 1735 ;
1762 [label="(...)"] ;
1734 -> 1762 ;
1781 [label="pressure <= 0.73\ngini = 0.456\nsamples = 234\nvalue = [130, 240]"] ;
1733 -> 1781 ;
1782 [label="(...)"] ;
1781 -> 1782 ;
1817 [label="(...)"] ;
1781 -> 1817 ;
1846 [label="windspeed <= -0.746\ngini = 0.162\nsamples = 397\nvalue = [544, 53]"] ;
1732 -> 1846 ;
1847 [label="latitude <= -0.817\ngini = 0.466\nsamples = 79\nvalue = [75, 44]"] ;
1846 -> 1847 ;
1848 [label="(...)"] ;
1847 -> 1848 ;
1849 [label="(...)"] ;
1847 -> 1849 ;
1870 [label="sunset_log <= 0.986\ngini = 0.037\nsamples = 318\nvalue = [469, 9]"] ;
1846 -> 1870 ;
1871 [label="(...)"] ;
1870 -> 1871 ;
1872 [label="(...)"] ;
1870 -> 1872 ;
}